47 100
adventurerpg 0.00054713635 0.00040779193 0.00026192886 -0.00025539153 0.00058455725 -0.0009737615 8.456665e-05 -0.0003164625 -0.00087880023 -0.00017823123 0.0007481899 -0.00092140783 -4.5246292e-05 0.0019897064 -0.00053251034 -0.00043268866 -0.0008489526 0.0012992657 -0.00044792792 0.0017524696 -1.5597574e-05 -0.001146402 0.00067952956 -0.001361938 0.0003723169 -0.0011595746 0.001129826 -0.0004976851 6.833625e-05 -0.0009815341 -0.00019063147 -0.0016519934 -0.00017634615 -0.00024137046 -0.00012133617 0.00047412576 -4.4491684e-05 0.0008787337 0.00086763914 0.0010792224 -0.0012946283 -2.4789922e-05 -0.0011127053 -2.6951826e-05 -6.826894e-05 -0.0009955391 -0.0011549765 0.00056544953 0.00042021187 -0.00016156188 0.001437614 0.0006447926 -0.00072011945 0.00074703846 0.00010827252 -0.00021413075 -0.000277393 0.00043616202 -0.00021921622 0.00064367644 0.0008444554 -0.00023602432 -0.0002695148 -0.0003848723 0.000552785 0.0013973152 -0.00074628636 0.0005255619 -0.00020817237 0.0007429946 -0.00084918103 -0.0012282188 -0.0012981247 -0.0012767237 0.00019044973 0.00039939306 0.00077374367 0.0010219533 -7.8909015e-06 0.0006868355 0.00056378805 -0.00032061292 -8.419963e-05 -0.0007123709 0.001115721 0.00028027862 4.962845e-05 -0.0014401571 0.0014749741 0.000747945 0.00055853865 0.00041661534 0.0014043559 0.0011706222 0.00091387774 -0.00077761296 -0.0004837552 -0.00038350755 -0.000604837 -0.0005039353
grand4x 0.0010008162 0.0006492341 -0.00033836282 0.000514466 -8.1168466e-05 -0.0019246881 -0.00040342723 -0.00025249794 -0.000157311 -0.0014409125 -3.1973377e-05 -0.0006460496 -0.0011785106 -7.3364776e-05 0.00071996945 -0.0018337301 -0.0006246421 0.001416006 -0.00050201424 0.0016305275 9.8380966e-05 -0.00022045594 0.00048331375 0.00024813323 0.0014281368 -0.0020168226 -0.0015493694 0.0016582973 -0.0005808654 -0.0017750124 0.00047650703 0.0011015465 0.0007668102 0.001066362 0.00023927026 -0.00081248395 -0.0009466694 0.003179036 0.0010228076 -0.00073986663 0.0006930768 -0.0013438169 0.0006833607 -0.0020879137 0.002192512 0.00061438273 0.00035972157 2.3408225e-05 -0.0013724525 0.0031356516 -0.00040808425 -0.0014026049 -0.001647724 -0.0003860803 -9.765251e-05 -0.00068921206 0.0010566189 0.0017712461 6.048098e-05 -0.0008377105 0.0005004894 0.0010088255 0.00019229752 0.00057187036 0.0011737535 0.0007738206 9.254985e-05 0.0020646108 0.0017329265 -0.000978206 0.000409234 0.0011099633 0.0012149072 0.00130221 -0.0011040642 -0.0014544306 -0.00066079595 0.00050324405 0.0012101067 0.0014016413 -0.00055963633 0.0003977083 0.0007188705 2.9359782e-05 -0.0006733673 -1.2919084e-05 -0.0001971762 0.0017916441 0.00010572803 -0.0021041713 -0.0017482733 0.00040331183 0.0005559037 -8.367485e-05 -0.00042080734 -3.5833647e-05 0.0013474536 -0.00036453942 -9.904662e-05 0.0016377519
hiddenobject 0.001397651 0.0017627304 3.2842112e-05 0.00017316865 0.00060330034 -0.00022860536 -0.0006391174 -0.0002709212 0.0009458542 0.000718891 0.0009192581 -0.000878485 0.001096017 0.0007225735 0.0008537863 0.0010750368 -0.00049445225 -0.0012333879 -0.0017958429 0.0005225187 -0.00026556486 -7.4518866e-05 0.00011835864 0.00017401372 0.00019102108 0.0004653214 0.00015692081 4.0165545e-05 0.0011965488 -0.00024448877 -0.0007456516 -0.002079962 -0.00031897315 -0.00034936587 -0.0012762431 -0.000110211266 -0.0011932832 6.095849e-05 -0.0007254668 -0.00052706024 -0.0003378396 -0.0010385552 0.000546659 0.0010215711 -3.0983585e-05 0.0014977268 0.0017611494 0.0004130257 0.0015440513 0.00092271116 -0.00035106845 -0.0013756144 -0.0008588595 0.00058326323 -0.0002528706 -0.0005985943 0.0015739951 -2.4371022e-05 0.0007490624 -0.001599017 -6.184372e-05 -0.0009781253 0.0012475853 -0.001052098 0.0002279515 0.00041911408 -8.035468e-05 0.0003542456 0.0003107386 -0.0008085519 0.0010315174 0.00073993957 0.0006739821 -0.0007711301 -0.0015444045 -0.00040756687 0.00012233145 0.00056705304 -0.0014194783 -0.00013198414 0.0006966826 -0.00095724955 -0.00064992224 -0.00014479851 0.0007128292 -0.00023035848 0.00075419067 0.00010591706 0.001985532 0.001481641 0.000661431 -4.7776048e-05 -0.0015913778 0.0016255663 0.0009936331 0.0018902392 0.0002102118 -0.0019956892 0.0021512413 -0.00044391747
realtimestrategy -2.867637e-05 -0.00021144084 0.00013199115 -0.00036489958 0.00047961445 0.0019842912 0.0008907232 0.00024038032 3.443053e-05 -0.00042139704 -0.000108499626 0.0013195428 0.00054796354 0.00042013972 0.00029282994 -0.0009914705 -0.0009946197 -0.00019069272 -0.00083735253 0.000881839 0.0008038812 -3.391415e-05 0.0012414615 0.0012568339 0.00092290953 -0.00035599276 0.00057713134 0.00015958148 0.00033844964 0.00073730026 0.0007001199 -0.0016860416 0.0018945475 -3.0103825e-05 -0.00060771033 0.0012222381 0.00065209565 0.0008260891 0.0007416903 -0.0006092022 -0.0008582415 6.157253e-05 -0.0007233939 0.0011151776 0.0013625768 0.0012536267 0.00030022036 0.0006462951 -0.0003384716 -0.0001520339 0.00037170926 -0.0010956838 -0.00011196275 0.0002585181 -0.00045176697 -0.00090163556 0.0009242604 0.00057555985 0.0011497384 0.00029323174 -0.0006973781 0.000577876 -0.0007837931 -0.00077547017 0.00011137597 0.0010341001 0.00055049075 0.0003617873 -0.0012134585 -0.0006776055 0.00069768436 0.00018908415 -0.0002042733 -0.000617032 0.00018409303 2.0269841e-05 -0.00022343309 0.0019318047 0.00040770098 0.0019962315 -0.0006358723 0.00040203938 0.00036817553 -0.0006267258 0.00046282128 -0.0011816461 -0.0015172819 -0.00076538627 0.0012508888 -0.00033196187 -0.0014846252 0.0009789941 0.0009674045 0.00028112397 0.00094323355 -0.0022230123 0.0008837516 0.00052067614 -0.0008594586 -0.00012773149
puzzle -0.0022571138 -0.0006248204 -0.00032949957 0.0015539802 0.000573794 -0.001167222 0.0018252715 0.00040548286 -0.00012915314 0.0010790355 -0.0010005288 0.00017585307 0.000220302 0.0007392498 0.000114832 3.140204e-05 -0.0020955252 0.0008516696 0.0012556709 0.00022144079 -2.0973323e-05 -0.0020696877 -0.00060095225 9.675752e-05 -0.00086328015 -0.002013207 -0.002443354 -0.00026445356 -0.0049508195 -0.001867209 -0.00090743456 0.0005342437 0.0006091974 0.0005889117 -0.00019013953 -0.0004885466 0.0014355875 0.0009378679 -6.198101e-05 0.0007370292 -0.0010010012 -0.0007316776 -0.0021314411 -0.00025143716 -0.00061449077 -0.0011627118 0.00073331984 0.0005995699 -0.00023762416 -0.0017889506 -6.169897e-05 0.0029314696 0.0015856447 -0.0028517246 8.977516e-05 -0.0011942228 -0.0008038222 0.00043268976 -0.001113363 -0.0013697423 0.00085428683 -0.0019409378 -0.0009608038 0.003752939 0.000109716515 0.0011428995 0.00035217256 0.00068459474 0.0002765332 -0.00081856 -0.0010352865 0.0007141613 -8.7383545e-05 0.00041957136 0.0015703982 0.0012856725 4.4501532e-05 0.001782292 -0.002418919 0.0012354186 -0.00015916479 0.00027605347 -0.0010962522 0.0016271891 -0.00087390153 0.0017360896 -0.0011107649 -0.0008333989 -0.0010367563 0.00016790531 0.0014910925 0.0009675496 0.0021246981 0.0023951519 -0.002939648 0.00086088676 -0.0017776871 0.002860441 0.0005475999 -0.00091333804
strategyrpg 0.001832751 -9.870079e-05 0.00013513654 0.0005110591 0.00072776194 0.0013313413 0.0010468055 0.0005504364 -0.00011862836 0.00021768323 0.00023379002 -0.00015116436 -7.997649e-05 -0.000119545184 -0.00076819846 -3.6761823e-05 -0.00011608511 0.00034174472 -0.0016900211 0.00072972785 -0.0017165171 -0.0017889094 0.00054709415 0.00037470277 0.00036636688 -0.0007442114 5.3119893e-06 -0.0017744706 0.00018797877 0.0010007753 6.469098e-05 -0.001075098 0.0009888057 -0.0002116881 0.00049547583 0.00036226315 0.00014159759 0.00022478894 0.0007064266 4.2411804e-05 -0.00070930424 7.525508e-05 -0.00081515685 0.0016497836 0.0009197974 0.0014610736 0.00014179254 0.000506617 -0.0016159039 -0.001355302 -7.62827e-05 0.00039422698 -0.00072107924 0.00014846849 -0.0007669845 -0.0018431109 0.0017926916 -7.187862e-05 -0.00022653252 0.00030268868 0.0010346677 4.0090827e-06 -0.00015086404 0.0004873403 0.000112295784 0.0006504596 -0.0012579279 0.00010324474 -0.0012881439 -0.000609324 0.0016169789 0.0005082779 0.00043515928 0.0002701894 0.00028042408 0.00039960686 -0.001316087 0.0021232783 0.0008541612 0.0005579229 -0.00031898692 0.00019597086 -0.0003481365 -0.001184276 0.0011632761 0.00014313853 -0.0011659486 -0.0011474974 0.0009757529 0.0009995078 -0.0004888685 0.000116495496 8.5576416e-05 0.00012624588 0.0015069094 8.435514e-06 -2.727796e-06 -0.00052183954 -0.00071297894 0.0012172984
sandboxphysics 0.00052896945 2.372652e-05 -0.0006379226 0.0013259948 0.0013388847 0.00016734528 -0.0005718049 0.00040485352 0.00077462645 -0.00026080475 -8.384361e-05 -0.00035412997 -0.0010478315 0.0013744092 -0.00095791504 -4.848697e-05 9.903018e-05 -0.00045599628 0.00030523108 0.000718846 -0.0006054009 -0.00037999477 0.0015859002 8.4770785e-05 -0.00020204554 -0.00033494734 -0.0011347415 -0.0007741598 -0.000859655 -0.00034872998 -0.00042338 0.0006714529 0.0002747938 -6.909135e-05 0.00038068191 0.00029728436 -0.00072234817 -0.0012547069 0.0011521261 0.00094798586 -0.0003083242 0.0009862114 -0.00017002977 -3.852007e-05 0.0016419195 5.9893893e-05 0.000115539515 0.0013986533 -0.0004639154 -0.0022210677 -0.0020817998 0.00047095504 -0.0011844173 -0.0004951569 0.0007287055 0.0011270005 0.0012556051 -0.0005485314 -0.00055376644 0.0012114127 0.00059912563 -0.0010568498 0.0012778131 -0.0003505691 -5.1416486e-05 0.0007977664 2.980293e-05 7.0069735e-05 -5.0538583e-05 0.0010314063 -5.128401e-05 0.0010646085 -0.00031767943 0.000525787 -7.5880846e-05 -3.6855974e-05 0.0014652434 0.0014712745 -0.00091860595 -0.00045471283 0.0009135444 -0.0006960654 0.00025000036 0.0008885832 -0.0005003622 0.0010268724 -5.7225632e-05 2.129796e-05 -0.00066088187 -0.00094076124 -0.00062513945 0.00075094076 7.163245e-06 0.0006501187 2.0067226e-05 -0.000392594 0.0009185492 0.0011949418 0.0003983777 0.0009324415
cardboard 0.00026871508 0.00017841639 0.000995345 -0.0007510471 0.0014644585 0.00031300125 -0.0018926462 0.0005973671 0.00067442056 8.9244226e-05 -0.0013435743 0.00084558525 -0.0028784194 0.00010735692 0.0005951418 0.00059708126 0.0020131946 -0.00016354764 -0.0005675751 -0.00045098725 -0.00014690541 0.00033277774 -0.0013182278 0.00018309311 -0.0004559901 -0.0007737041 -0.0009331858 -0.00030353517 0.00025680178 -0.00014070296 -0.0017479282 0.0013966524 -0.0008621371 -0.0007900033 -0.0011976446 -0.0010556283 -0.0016228027 0.00065391493 -0.0011211009 0.0003154739 0.00015583845 0.00041862886 0.0005720508 0.00033854635 -0.00041021805 0.0009116998 -0.00056614395 -0.00095981616 0.0016910929 -0.00054300524 -0.00069784996 -0.0018176413 0.00063560024 0.0013247503 0.0013623128 -0.0002265979 -0.00021676037 6.222291e-05 0.00042055483 -4.242885e-05 -0.00040980193 -0.0006104511 0.0015824614 -0.0010050794 -0.00047301137 0.00028312695 -0.0020820491 0.0008932925 0.0013913909 0.0010839523 0.00024954436 -0.00070648635 0.0008020258 0.0012008493 0.00066258427 -0.00078397756 -0.0005009284 -0.00012756913 -6.915355e-05 -0.00091460766 -0.0011765606 -0.001218245 0.0006367434 0.00047112972 -0.0008961713 0.00014874923 0.0010432691 0.0009746311 0.00073509244 -0.00068559434 0.0002519095 -0.0013834152 -0.00075955794 0.0008929308 -0.0010313825 -0.0016271641 0.0008164469 0.00016561833 0.00041753883 -0.0014793176
storyrich 0.001215457 0.0002029354 -0.0009848748 0.0006259568 0.0012440844 0.0006432771 -0.001307841 -0.0015096085 -0.0021918316 0.0006316008 0.0013011805 0.0001772563 0.0004895696 0.00086016714 2.4870158e-05 0.00097408355 -0.00229275 0.0025100813 -0.0012639831 -0.0001069847 0.00066788116 0.0006172406 -0.00015792047 -0.0012218555 0.00060386094 9.967606e-05 -0.0006440877 -0.000729861 0.0014739622 0.00055635325 0.00023889953 -0.00014729699 -0.0005930575 -0.0015498427 -0.0012080696 0.0009276546 0.00015350767 0.0017836367 0.00025535448 0.0002468093 -0.0008290511 0.0009862677 -0.00035141272 0.0024292327 -0.0016811327 -0.00079172465 0.00091042055 -0.00087637035 0.0010882359 -0.0020098123 -0.00056274165 -0.00023733074 -0.0011112071 -0.00042556375 0.0014818619 0.0008127858 0.00015183177 -0.00044484658 0.00068268745 0.00040951243 -0.00065751985 0.001676951 -0.0012618066 -0.0005935252 -0.0011350714 0.00046664532 -0.0016534021 -0.0006828647 0.00035511458 -5.045922e-05 0.0012753014 -0.0004990226 -0.0007626031 -0.0006000259 -0.00079563673 -0.0013156473 0.000989158 -0.00022341701 -7.0507915e-05 0.001115779 -0.0014810831 -0.0005743468 -0.0002191011 0.0011275234 4.9753777e-05 -0.0005440871 -0.0003196459 0.0009767481 1.7804898e-05 0.0012412122 -0.0006238823 -0.0008397701 0.0004392727 -0.0002965324 0.0013799827 0.0013201816 -0.0013098844 -0.00021314727 -0.0019238464 -0.0012402924
jrpg 0.0013370813 -0.0024780715 -0.0009081775 0.002195387 -0.00042261675 -0.0028404715 -0.0013098797 0.00015246695 -0.0021891268 -0.0013728023 -0.00040890175 -0.0028184382 0.002139208 -2.5552443e-05 -0.00057444716 0.00021511955 -0.00036801564 -0.0012422394 -0.003921511 0.0016765225 -0.0010110984 0.0009908114 -0.0017353091 -0.00181739 -0.0010585443 -0.0019215514 -0.0032005063 0.0017203045 0.000754136 0.0031034055 0.0017637106 0.0028413686 -0.00017371803 -0.0007377332 -0.0007531619 -0.0027297498 0.00036956996 0.003089062 0.0024055399 0.0022400215 0.0011833744 -0.00030646354 -0.00036388644 0.0030107463 -0.00036589726 -0.002048351 -0.0010130245 -0.0007445179 0.00037664184 0.0019604333 0.00076109054 0.0017517384 -0.00093006215 -0.0007189587 0.00086142984 -0.00093667745 -0.00025629989 -0.00012477962 0.0016366399 -0.0013815241 -0.00047559635 0.0010858781 6.697208e-05 0.0006030095 0.0012486525 0.0015449661 0.00013171096 -0.00095374475 0.0008268328 -4.0824558e-05 0.0013225358 0.0007828517 -0.003104874 0.0006849498 -0.001118723 -0.0016039617 0.0005736614 -3.9188657e-05 0.0044906 -0.0021540099 0.0027339102 0.0019508707 -0.0029471824 0.0012518358 -0.0013107863 -0.0022675903 -0.0020626679 -0.0015964836 -0.0008987788 -0.00032442427 0.0028481178 0.0022022615 0.0011058331 0.0036049194 0.00033763424 0.0005074726 0.0003487831 0.0016353483 5.7720918e-05 0.0020493185
hackslash 0.0007636132 -0.00026643949 0.0007689428 -0.0002161988 0.00021564997 -0.000475902 -0.0013990576 2.3633753e-05 0.00046176682 -0.0004134896 -0.0002642417 0.0003541661 -0.0001274322 -0.0015731951 0.0005303897 6.677063e-05 -0.00010445068 0.00061958394 -0.0009625081 -0.00035119653 -0.00033731028 -0.00075115095 0.0011248228 -0.0004473046 -0.0008784246 -0.001394878 0.0006942789 0.0012164994 -0.0013442364 0.00016337058 -0.00043572846 -0.00045009103 0.0016316301 0.0005277248 -0.0013972522 -3.400873e-05 0.0015044805 -0.0016461654 0.0007058052 0.0009694781 0.00011622981 0.0009044754 -0.00039728917 0.00014866903 -0.0015964073 -0.0017937524 -0.0011524748 -0.00034900947 0.0009160125 0.0015248478 -0.0016689127 0.0008594476 -0.00013250342 0.00020318343 0.0024798613 -0.0005826942 -0.00026747125 0.0012146452 -0.0010545922 -0.0004028556 0.0009307122 0.0011308317 0.00038401468 0.0002026386 -0.0004788492 -1.8582912e-05 -0.0015439033 0.0007455159 0.0005019217 -0.0014395395 -0.0013838342 -0.00090951147 -0.0012011729 0.0014725069 0.00035332443 0.00090003177 0.00054794573 -0.0015051826 -0.0012764867 0.000597043 -0.0015083472 0.0009486164 0.0015311731 -0.00026383405 0.00024570132 -6.7201894e-05 0.0009605474 0.0012047492 -0.00021642384 0.00029255214 0.0010679875 -0.0010904699 0.0004597825 0.00122403 0.0014751947 0.00074975746 0.001199847 -0.001063159 0.0006615094 0.0006942687
thirdpersonshooter 0.00023335918 -0.00040236473 -0.001122205 0.00022666852 0.0007643359 0.0023663023 0.00028578768 6.121194e-05 -0.00078775047 -0.0004792128 0.0012468239 -0.0011070945 -0.00024682583 -0.0006231771 -0.0005246054 -0.0007701957 0.00013279838 7.1004884e-05 0.0010488909 0.00017770768 -0.000932462 8.5018044e-05 -0.0006553218 -0.0011754239 -0.00027291337 -0.00089127483 -0.0018015286 0.00019145943 -0.00014790318 -0.000943143 0.0010894971 -5.288548e-05 0.00094169466 0.0008088984 0.0006698371 0.00019113347 -0.0005181537 0.000769629 -0.00057460245 9.6890544e-05 -0.00018580371 -0.0010793906 -0.0011011553 0.00039186087 -0.00018564505 0.00066010456 -0.00036516335 -0.0005229185 9.470042e-05 -0.00033680504 -0.0013292743 -0.0010293471 2.6869873e-05 -0.0005757194 -8.2708386e-05 -0.00025801844 0.0003953597 -0.0002599919 0.0010037555 6.404266e-05 0.00023221211 0.0008214026 -0.00044761074 0.00084158167 0.0005184344 0.00032977888 0.0013265697 0.00084151735 0.00033468506 -0.00016798484 0.0007227189 0.00089937105 -0.00042661018 -0.00011992885 3.0621664e-05 9.874429e-05 0.0010495055 0.0011172498 0.00071920105 6.82466e-05 0.0009870126 -0.00036386683 0.00039222068 4.586027e-05 0.00018251412 0.00053159724 -0.0005973035 0.00030311185 0.0014423011 -0.0005709881 0.00033559167 -0.0010989164 9.232362e-05 5.189086e-05 0.00019427275 0.00083445275 0.00031896745 -0.0007477614 -0.00019766833 -0.00015145115
strategy 0.00029221957 -0.0008145433 0.0020572832 -0.0008195811 0.0014425546 0.0019094796 0.0012483244 8.683964e-05 0.00036755824 1.968064e-05 -0.00013007411 0.00077225687 -6.293119e-06 -0.00031048668 -0.00038945314 -0.000695514 -0.00070126564 -7.7094104e-05 -0.0013526528 0.00021588242 -4.707466e-05 -0.00031790696 0.0014624769 8.332074e-05 0.0018802754 -0.0005619749 0.0010759716 -0.0003998577 0.0004533294 0.00025454722 0.00034502576 -0.0015798488 0.002871647 0.0012458476 -0.0010313115 0.0024098193 0.00020837029 0.00030704358 0.0013538117 0.00022834515 -0.001127708 0.0019579772 -0.0009399557 0.0014525912 0.00057467405 0.00087818585 0.001542755 -0.00023548753 -0.00062152446 -0.0019016358 -0.00031482967 -0.0016384359 -0.001275835 -3.3091866e-05 -0.00082907814 -0.0022509529 0.0021627997 0.0004868395 -0.00027116484 0.00046436468 -0.00041328228 0.0002725115 0.00037366763 0.00012826933 -0.0010621534 0.00090496964 -0.0013026394 0.00054104446 -0.0027873516 7.329002e-05 0.00064017356 -0.0005799784 -0.0002865557 -0.0011925257 0.0013791564 4.462008e-05 -0.00070108037 0.002678674 0.00079002755 0.0029226334 -0.0014796078 -0.00017890122 -0.00057636225 -0.00013963738 -0.00071375305 5.2798547e-05 -0.0015700345 -0.0014241897 -0.00022611972 7.9477424e-05 -0.00047208092 0.0008220288 0.0011602769 0.0014410176 0.0011774986 -0.000926735 0.00050624076 6.964618e-05 -0.002506317 0.0006317422
allsports 0.000448953 -0.00038474833 0.00043497534 0.0006980415 -5.426056e-05 -0.00020737348 -0.000371327 7.1218405e-05 -0.0017102485 -0.0002227608 -0.00064489717 -5.1740783e-05 -0.0015441709 -0.00074310554 0.000291082 0.0005846823 0.0013129483 -0.0004600257 0.00058697164 0.00016192032 0.0008316607 -0.0004148778 -0.00017728789 -0.00010702148 0.0022024512 0.0019809196 -0.00051521993 -0.0009225119 -0.0014163984 0.00047329892 -0.00026939387 0.00066407426 0.0008762039 -0.0007240657 -6.759469e-05 0.0007468763 0.0010999291 -0.0010202139 -0.0017048537 -0.0013506596 0.0022446804 -0.0003681991 0.0013110415 -0.0001498429 0.000659131 -0.00078299246 0.0003976017 0.0011867326 0.0015321807 -4.842083e-05 0.00058882445 0.0001982028 0.0010790311 -0.0010147756 -0.001666625 0.00079952413 -0.00045884057 -0.0011459714 -7.3325755e-05 0.0015584168 -0.00026788545 0.0005032346 0.0007134689 5.071441e-05 0.0013206372 0.0018259088 0.0016367966 0.002682659 -0.00044751665 0.0009124638 0.00074283406 -0.0019091358 0.00061413413 -0.000635591 0.0018547223 0.0019591032 -0.0006065194 0.0011237093 -0.0010901769 7.674309e-05 0.0010758289 -0.00020900766 -0.0011085299 0.0007932425 -4.3659275e-05 0.0016218252 0.0011491851 0.0011736503 0.0010276566 0.0007769849 9.9865565e-06 0.0015689945 -0.00012186949 0.00023500474 -0.0022020047 -0.001551175 -0.00025479082 0.0014957824 -0.0009585908 -0.0015309805
actionrpg 0.0006553429 0.0014815676 -0.00012355261 0.00017189875 -0.001197363 0.0013605405 0.0006151033 -0.00080253516 -0.000634129 -0.0014658708 0.0013284282 -0.0020188803 -0.0011591972 0.0005472603 -0.0005476491 -0.0003588848 -0.00105555 0.0002394439 0.0008985518 -0.0006264538 2.0818634e-05 0.0010208461 -0.000918816 -0.00061412784 -0.0019513664 0.0001501518 0.0016160024 -0.00030012478 0.0008970677 0.0015185956 0.00035772566 0.00094363093 0.00070810923 -0.0010770167 -0.00021973162 -0.00071231247 0.003707154 0.0010676874 -1.9451332e-05 0.0027646134 -0.0005510937 7.476536e-05 -0.0012295649 0.00030585317 0.00028371604 7.189257e-05 0.0011025962 0.0006217279 -0.0021883976 0.0015114949 0.0003073705 0.0016533936 -0.0005062633 -0.0008280965 0.0007326335 -0.0026586566 0.0023387717 -0.0012557709 -0.001146577 0.0015081997 -0.001385951 0.00079472247 -0.0005751072 -0.00017899029 -0.0010993783 0.0009129229 0.0007025313 -0.00022257346 -0.0010959561 -0.00050415506 -0.0005405769 0.00055094174 0.00039722637 -0.0003864187 -0.0010458475 -0.0024817744 0.0007286649 0.00073933817 0.0007325719 -0.0004977145 0.00052995834 -2.8315384e-05 -0.00012638554 -0.0013309137 -0.00022040629 -0.0010984202 -0.00017291661 -0.0010238378 0.0008546763 0.00012339516 0.00096236024 -0.0016436443 0.0013107535 0.00010485277 0.00021674913 -0.00022936387 0.0022908256 0.00078175555 -0.00013809266 0.0011517456
roguelike -0.0006995858 -0.0008489921 0.0010397523 0.0014256063 0.00039561058 -0.000121434416 -0.00096186803 0.0011216833 0.00027692143 -0.0014747673 7.049672e-05 -0.000752371 -0.00042246503 0.0020184468 0.00053735316 -0.0006160252 -0.00014179709 -0.0005656501 -0.0011523163 -0.00036277564 -0.0008579341 0.0011679163 -0.00010546151 0.0019105402 -0.00019219935 -0.00081003085 -0.0010992514 0.00046957633 0.0006497321 -0.0005464854 -0.0005593526 0.00026195977 -0.00014680847 -0.00018731604 -0.0010674272 -0.0010145319 0.0010794714 -0.0010248594 0.00026305325 0.00296831 -0.0010640511 -0.0009209451 -0.00075931515 -0.0006975323 0.00059024955 0.001248014 -0.0013963262 -8.757106e-05 -0.0016366695 -2.849071e-05 -0.0008858246 -0.0010954194 -0.00054785045 -0.001121939 -0.0015831528 -0.00010186249 0.0014014834 0.00012696703 -0.00015833805 -0.00070046284 0.0006151575 -0.00019173247 0.00095462584 -0.00087005476 0.00058081397 -0.00074311334 0.00017275393 -0.00054337503 0.00026887332 0.0005808369 0.0002792936 0.00013191623 2.1096319e-05 -0.0006937952 0.0018956905 -0.00041820595 -0.0009407648 0.0020016131 0.0012820837 -0.00040780284 -0.00035002144 0.0016278407 5.555195e-05 6.598766e-05 -0.00016013545 0.0017908249 -0.0006659412 -0.0004741437 0.00015127246 0.00039326286 -0.00038093133 -0.00014988579 -0.0012936839 -0.00044685113 9.1988e-05 0.0023344764 -0.0020978746 -0.0012323955 0.00019453438 0.00076198956
racingsim -0.0010033628 0.0019162885 -0.0013261928 -6.0725175e-05 -0.00037178877 0.0011488064 0.001561545 -0.00052504626 -0.00095924793 -0.0018844749 -0.0008738991 0.000596137 -0.00070479704 -0.0016236797 0.0008157243 0.001117148 -0.00014317692 -7.403457e-05 0.000356969 -0.0006631893 0.00062560145 0.0016852105 0.00151807 0.00061102473 0.00017094858 0.0030499515 0.0007614702 -0.00062463165 0.001086328 0.0022165983 -0.00035660362 0.0004146921 -0.00020158057 -0.0018414177 0.0003675763 0.00059279177 -0.00025750752 -0.0016308659 -0.00017325512 -0.0010101909 -0.002622019 -0.000108802 -0.0009914794 -0.0014144343 -0.00019494345 0.0007880233 -0.0011191086 0.000905552 0.0021925797 0.0008546518 0.00016071527 0.0007068175 -0.00067888026 0.0005735425 -0.0016088749 -0.0003797307 -0.0015197817 -0.0004263762 0.00074092014 0.00015606052 0.00078857393 -4.843748e-05 1.3866345e-05 -0.00041322934 0.0001002364 -0.0005606886 -0.00040867078 0.0012928654 0.0013332941 -0.00012651003 0.0002853401 -0.0013447638 0.00047947033 0.00014044803 -0.0023414595 -0.00048409373 0.0018436239 -0.0011133909 -0.000314886 -0.0009940739 0.0019208015 -0.00026417297 -0.001829943 -0.000118242715 -0.0005962944 0.00034808056 -0.00027606176 -0.00012510981 -0.00019980162 0.0008887955 0.0015849977 0.0006892597 0.00042706385 0.0006517995 0.00018917682 0.0018132607 -0.00029278203 0.0014853721 -0.00072072307 -0.00021777743
sportsracing -0.00075658486 0.0012344831 -0.0015095697 -0.0003999431 0.0002497488 -0.00070403557 0.00067525223 -0.0006807624 -0.0012712565 -0.0013046708 -0.0018347256 0.00059654337 -0.00154963 -0.0011558328 0.0005003205 0.00079258386 -6.290889e-05 -0.00061257393 0.00032838105 -0.00091959146 0.00046446236 -0.0005622236 -0.00034806508 0.0010317806 0.0012096197 0.0005632032 1.5758946e-05 -0.0009911485 0.0006011109 0.0004705667 -0.00021094776 0.0014157507 -0.0009876954 -0.0007857895 0.00011211955 9.4198826e-05 0.0011204566 -0.00022705787 -0.00021758657 0.00015083338 0.0010379707 0.0010748707 0.0015481417 0.00093786593 0.0018106517 -0.00054542546 0.0010538659 0.00072196516 0.00033887173 -0.00012204874 -9.7490985e-05 0.0015323159 0.0005723142 -0.00017800913 -7.146765e-05 -0.00072077574 -0.0004594797 -0.0011619797 0.0005920869 0.00042981844 -0.00074256083 -0.00039514553 -0.0003389389 0.0005696578 0.00020583483 0.0017861373 -0.0009528324 -0.00030129298 -0.0005463351 -0.0011512336 0.00010127683 -0.0020530613 0.001170965 -0.00019675148 0.0005929913 0.0005269165 0.0005621275 0.0007530082 0.0013924587 -0.000271166 0.00049296534 0.0002595768 8.716689e-05 8.839133e-05 0.0007620255 -0.0003596115 0.00071841 0.00075569696 -0.00091684307 0.00073376525 -0.0010503848 0.00041054172 0.00051813637 -0.00048045957 -0.0011408352 0.0022131572 -0.0004704701 0.0011790235 0.0005063526 -0.00035807583
arcaderhythm -0.00028622986 0.0012438075 -0.0021209202 5.277632e-05 0.0015590267 -0.00018784456 0.0019215175 -0.0011392906 -0.0011124708 0.00034104445 -0.0011995651 0.00027504566 -0.0011892944 -3.4838179e-06 -0.0004392285 -0.0010726042 -3.9451897e-05 0.0010611798 -0.0012598292 0.00072059827 -0.0015487893 -7.240029e-05 -0.00069027604 0.0006912357 4.5974582e-05 -1.5882575e-05 -0.0006397952 0.00010549687 -0.00048920535 0.00015025184 0.0009517274 0.00023204784 0.00016332843 -0.0011224156 -0.0018566861 9.850714e-05 -0.0009529024 -0.0004467887 0.0005158097 0.00023635544 0.00032283922 -0.0009046988 0.00023910128 0.00040218493 -0.00031224077 0.0007578454 0.0013852306 -0.0010433828 -0.00022761272 0.00019286113 0.00045144933 -0.0023987237 -0.0015538998 0.000179147 -0.0005753534 -0.000117094496 0.0002669399 -0.00093266653 0.0002314271 0.0015761161 0.0005006566 0.00029069002 0.00016291544 0.001766589 -0.00021964063 -0.0002652104 0.0005893447 -0.0017061426 -0.00063869305 -3.2232307e-05 -0.001015478 0.0006236813 0.0012004626 0.0014887955 0.0015490497 0.00043785086 0.0006524909 -0.000628857 0.00068903895 -0.00063639035 0.00051944243 0.00070565694 -0.00091668224 0.0008197146 0.0013324841 -0.0012966114 -0.00020189946 0.0012862141 0.00052218646 -0.0015100695 -0.00069485477 -8.386912e-05 0.0001643834 -0.00018448153 -0.00077120785 -6.5625863e-06 0.0012303941 0.00060148846 0.00037291806 -0.00048430226
military 0.0027047636 -0.0010393314 0.00045409772 0.00012555148 -0.00034716906 0.00012915347 0.0009654111 -0.00089743774 0.00038574476 0.0003571736 0.00058164104 0.00016487316 0.0009251095 0.00024262174 0.0020015892 -0.00047123598 0.0007799779 0.0020385263 -0.0014896153 -0.00075160275 0.0012495784 0.00021558127 -0.00022065574 -0.00031326947 0.00021003978 -0.00024710558 -0.001759437 -0.0007470275 -0.00073924265 0.00061519403 2.6918153e-06 0.00040029472 2.0738691e-05 8.564425e-06 0.00016716907 0.0015563584 -0.00033253382 -0.0010591642 0.0003846286 -0.000333581 0.00036351383 0.0022412145 -0.0014513251 -0.00072811055 -0.00078707776 -0.00047002843 -0.0018911503 -0.001193987 0.0013693646 -0.00054066087 -0.00049322273 0.0005570611 -2.0073347e-05 -0.0018552332 -0.0007470701 0.00038348112 0.0012699841 3.4577247e-06 0.0010064689 0.0019326522 0.00049564475 -2.9769795e-05 0.00144518 -0.001711198 -0.00038194042 0.0012320235 -0.0012467467 -0.00038405156 -0.0003801399 -6.373838e-05 -0.00179273 0.00019359242 -6.537512e-05 -0.0018624908 0.000775709 -0.00073198386 0.0010952719 0.0016652243 0.0006791051 -0.00052504265 -0.00012996365 -0.0019792507 8.468359e-05 -4.5648605e-05 -0.0020830873 0.00029834412 -0.0010594224 -0.00053086266 0.0012266889 -2.60369e-05 -0.0015148356 -0.00013904131 -0.0012023158 -0.0005440141 0.000994233 0.0009896057 0.0004335133 0.0011215677 0.00074329064 0.0012421678
fightingmartialarts 0.0013001057 -0.00024351644 0.0009354055 0.00086692773 -0.00018851644 0.0022176388 0.00038885485 -5.561993e-05 0.0011438918 0.00074241613 -0.00038259357 -9.277108e-05 0.0010902497 0.00027270243 0.0002997711 -0.00028872042 0.00091689697 -0.00018592367 -0.0008330549 -0.0004744673 0.00015618325 -0.0001373604 0.00073113316 0.00041288714 -0.00033956688 -0.00029108307 -0.0010949146 -0.0005160284 -0.00060977245 0.00078534137 0.00011432633 0.00012313013 -0.001989658 0.0006921611 0.0007278122 0.00010572517 0.0002610267 -9.693852e-05 0.0002067858 -0.0009756799 0.0016438797 0.00018911966 -0.00022283256 0.0005170743 -0.0014210665 -9.9650875e-05 0.00054265617 0.0003999654 -0.0010245873 0.00081613177 0.0017176986 -0.000916842 -0.00024858146 4.846735e-05 -8.3820596e-05 0.00017379427 -0.0008619172 -0.0005178965 -9.0965936e-05 7.330176e-05 -0.0003353288 0.0011166666 0.00029684894 0.00047567597 -0.0006009821 -0.0007150018 0.0001573592 -0.00046150092 0.00022569508 -0.00035383244 0.00021628059 -0.00038414603 -0.00040294958 0.00012639699 -0.00046192444 0.00029369057 0.0005553225 -0.00043545774 0.0009451693 0.00021758609 -0.0011675698 0.00083304703 0.001481451 -0.00011490346 -0.0005854641 0.0007871191 0.0012687771 0.000104564184 0.00022549136 -3.0692994e-05 0.0005410371 -0.00013527142 -0.0007688785 0.00013188114 -0.00094199466 0.00026397608 -9.87549e-05 0.000864204 0.0006599995 -0.00075767725
firstpersonshooter -0.0008189604 -0.00010687688 -0.0010631531 -0.00038450828 0.0007431675 0.0013570102 2.1922899e-05 -0.00027857933 -0.0008929168 -0.00012912837 0.00068824686 -0.000805449 -0.00041218413 0.0004233449 -0.001042515 -0.00053087005 -0.00024060572 0.00056952005 0.0009060161 0.0001693831 -0.0009019979 0.00036230884 -0.0009238983 0.00030380677 0.0003563302 -0.00057909626 -0.0013551144 0.00031542356 0.00022445644 -0.0021629366 -0.00036327398 0.00027508743 0.0007669636 0.0009232438 0.0007792395 0.0011651957 0.000113173766 0.00013309729 9.834042e-05 -0.00033088683 0.0006598382 -0.0009602344 0.00024146917 0.0006981922 -0.00091479364 -5.113852e-05 0.00048190172 -0.0013979919 0.00020271387 -0.0012100044 -0.0003561858 2.3661212e-05 -0.00010721161 -0.00031992575 0.00060548977 -0.00067574566 4.3593922e-05 -0.00048536062 0.00023490752 -0.0005655742 -5.213473e-05 0.0009882653 0.00035605158 0.0007978899 0.00061719294 0.0004303828 0.0013759754 0.00045120317 0.00072088075 -0.00071138615 0.00023373247 0.0013396101 -0.00023108693 -0.00093424186 -0.0003003575 -5.197471e-05 0.0008694406 0.0007180426 -4.0299532e-05 -0.00029726248 -5.406971e-05 -0.0013420767 0.0014617847 0.00077549106 0.001089854 0.0009921789 -0.00011328809 8.262235e-05 0.00138133 -0.00054340827 0.0003089461 -0.0016316195 -0.00016912648 -0.00025881888 -0.0006240781 0.0012446567 -0.00012796426 -0.0001928644 -0.00079143397 -0.0010157943
platformerrunner -0.00018353268 0.00046722143 0.0010663926 0.00023325616 0.00021092728 0.00015308365 0.00057141756 -0.0010420935 -0.0001867576 -0.00085891987 -8.107977e-05 -0.0006382717 0.0011295113 0.00047375227 0.0005456224 -0.00010738282 -0.0012489284 0.00017743405 0.0007107797 -0.0007411717 4.018207e-05 0.00036928532 -0.0012908236 0.0006445347 -0.0007668963 0.0010077585 0.0008972555 0.00064822356 -0.0005798171 -0.00051785004 -0.00048569473 -0.0012247416 -0.0009957151 -0.0012490277 -0.00064572564 0.0011104507 0.0013602828 0.0006213979 -0.00033362588 0.00033869923 0.0004015572 -0.0014603146 -0.0004902295 0.0009553967 -0.0006037531 -0.0032718414 -0.00026242068 -0.0006035062 -0.0004893536 -2.7292037e-05 0.0007986953 -0.0006750813 -0.0008210582 0.0007295036 0.00073634874 0.00014999844 -0.0005791542 0.00021169543 -0.00045703244 -0.00038650513 -0.0006504261 -0.0003359673 0.001255903 0.0011845372 0.00029171625 -0.0007050838 -0.00058039476 -0.00033846102 0.0003773802 -0.00037581014 -0.00088913663 -0.0005654824 -0.00025029515 0.00026894064 -0.0018869805 0.00062339526 6.3603125e-05 0.000110584726 -0.0004566395 0.00039320585 -0.001479443 0.0017010105 0.00057285896 -0.0010364819 0.00019085562 -0.00010955964 -0.000262178 0.0012515695 -0.0012351857 0.00011188455 -4.5211924e-05 2.5699846e-06 -0.00018812642 0.00022836971 -0.00014712286 -5.0335852e-06 0.0012694616 -0.0014726275 -0.0009800936 0.0011911916
simulation -0.0014922108 0.00043122703 -0.00057922036 9.559554e-06 0.00073331315 0.0010890295 -0.00010290602 -0.00023168461 -0.00017411952 0.000547644 0.00064565433 -0.00055184995 -0.00091344607 0.0006267537 0.0007852816 -0.0010693365 -0.0008987149 -0.00013819397 0.0021559387 0.0010615557 -0.0010726304 -0.0008809566 0.00075988314 -0.001255995 0.001265149 2.2388397e-06 -0.00032284542 -4.5505418e-05 0.0013582532 0.00039200723 0.0005271992 -0.00044792332 0.000814469 0.0003194864 -0.0009989005 -0.00013373552 1.9026425e-05 0.0006042173 0.0006091035 0.0004153763 0.0008224858 0.00024372278 -0.00092165323 -0.0015650479 -2.207777e-05 -0.0017734224 0.0005326035 -0.0008516681 -0.00023446749 0.0003092097 -0.000576313 0.0013268433 0.0005745915 -0.0010436577 -0.0010096721 7.504591e-05 -0.0018586125 -0.0010528491 0.00073037576 -0.0019273242 -0.0009820359 -0.00078501226 0.00064028543 0.00023073953 -0.00051715854 0.00041229726 -0.0016127016 -0.00020184343 4.112699e-05 0.0010948789 -0.00043181732 -0.00036608375 -0.0014800747 -0.0013053963 0.0005265297 0.001024403 -0.0004927939 -0.0002340096 0.00073836424 -0.0003096498 0.00023986027 0.00019710459 -0.00073259056 -0.00039065778 -0.00095502223 0.0013745474 0.00040254067 0.001126363 -0.00082888483 0.0007884657 -0.00015836729 -0.0007261444 -0.00047479835 -0.0017993799 -0.000573037 0.0012414803 0.0014054687 0.00033765472 -0.00071304437 0.00094998296
shmup 0.0006066476 0.001581042 0.0020993345 0.0013181518 -0.0018478998 0.0022325595 -0.00047578776 0.0015553675 -0.0023122837 -0.0004154104 0.00037877457 0.00034275762 -0.000620958 0.0011550778 0.0007985101 0.0005973536 0.00072017906 0.002811802 -0.0015736303 -0.0054326444 0.0016534311 -0.0008911142 -0.0016083881 0.00092405477 -0.00061665126 -0.0022829515 -0.0015533711 -0.0010434765 -0.0006039791 -0.0009868572 -0.00014581588 0.0011108808 -0.00016419239 0.00045472418 0.0009878047 0.0008965889 0.00028943352 0.0017070642 0.00044178788 -4.4309225e-05 -0.0009973014 -0.0016516264 0.0006770322 0.00045591936 0.00077266834 0.0012415141 0.0018998211 0.00046740385 -0.00051713776 -0.002515008 -0.00068939215 0.000738594 0.0010768144 -0.0029234851 0.0010509772 0.0024861759 -0.0007521784 0.00034976023 0.00037099927 0.0034537548 -0.00045230388 0.0009952956 0.00088289473 0.00038542424 -0.0017541256 0.0009872424 -0.0004085593 -0.001987343 -0.00047871564 0.00094130094 0.0025528793 0.00053345296 -0.002871026 0.00038642643 0.00015214445 -0.002294809 -0.00022490975 -0.0013019867 -0.000412903 -0.0024951517 0.00027104447 0.001739016 -0.0019302897 -0.00021280255 -0.0021783984 0.00017418206 0.0010912555 -0.0017981929 0.0012330018 0.0023080097 0.00080954935 0.0007856574 -0.00086057524 0.00029421487 0.0001590505 -0.00022933191 0.0022890514 -0.0013571058 0.0020704602 0.00015743071
sportssim -0.00049542607 0.0020401853 -0.0028373965 -0.0003984422 -0.00021650593 -0.000747131 0.0015422897 0.00012238666 -0.0005608463 -0.0013846653 -0.0026480244 -0.0002554719 -0.0001994621 -0.0009735309 -6.6683264e-05 0.002811932 -2.4170655e-05 0.0011630411 0.000607736 -0.0009943848 -0.00063700776 -0.00079172826 -0.00064399355 0.00087728986 7.3688345e-05 -0.0012246738 0.00032542183 0.0013201465 0.000860043 0.0013826324 -0.00095938664 0.001163184 -0.00017681348 -0.001024637 0.00070544216 -0.00025996187 0.0012611625 -0.0012817907 -0.0009802557 -0.0026685232 0.000101487785 3.871556e-05 0.0010265323 0.0012281368 -3.0211804e-06 -0.0011960472 -4.2667634e-05 0.00019702772 -0.000929773 -0.0011336515 -0.00011262712 -0.000575482 -0.0003537584 0.0005756598 -0.0009315769 -0.0021065471 -0.0026240267 0.00096146524 -0.0005539261 0.0014713458 -0.0010745457 -0.0004906004 0.00046349684 -0.0013296502 0.0005473898 0.0003242256 -0.00014437786 0.001344298 -0.000867664 -0.001227452 -6.8659865e-05 -0.0008409637 0.0001664301 -0.0007555532 0.00094885373 -0.00018382678 0.00064772204 0.0005629858 -0.00013200125 -0.0015752263 -0.0010522071 -0.00070271164 0.00020487288 0.001233184 -0.00086342654 -0.00029284603 -0.0007096323 0.0002801654 -0.0022045255 -0.0007354089 -0.0018213491 0.0004045432 0.0008600728 -0.00042932745 -0.0009616496 -0.00079270574 -0.00017740567 0.002551235 -0.0006204502 -0.00023028886
teamsports -0.00045631864 -0.0008756639 -0.0005449467 0.000727606 0.0014823215 -0.00028713173 0.00045754277 0.000625326 -0.00014651385 -0.0019582391 -0.00060958386 6.0673352e-05 -0.001309043 -0.00093113974 -0.00088983454 0.0006094132 0.00086218887 0.0004415285 -0.00043596356 -0.0013260038 -0.0006703872 0.000565843 0.0006799873 -0.0012279669 0.0005566343 0.0018127563 -0.0015523834 -0.000926399 -4.816494e-05 -0.0013307477 -0.00019429662 0.0005739388 -0.00062254467 -0.00028174938 -0.0009855902 0.0018958675 0.00027042578 0.00083438086 -0.00065578293 -0.0009248926 0.00086803164 0.0017403135 -0.00037656957 0.0004703312 -0.0005530557 0.00080194726 0.0013894663 0.0005019008 -0.0004906778 0.00056901784 0.00048656858 -0.00048229983 0.0008111472 -0.00028806753 -0.0015638124 -0.0009189018 0.00013573813 -0.0010687257 -0.00028261 -0.0004852515 -0.001555335 -0.00022929074 0.0008796215 -0.00012835064 0.001801174 0.00011041324 0.00074517186 0.001739659 0.00066340313 0.0008906014 -0.0006083886 -0.0013917667 0.00046736668 -0.0017034105 0.0015622521 -0.00091991073 -0.0005129814 0.0010044845 -0.00151884 0.00032507273 -0.00012815898 0.0013920532 -0.0011002714 0.00019549414 -0.0017883818 0.0004449043 0.0005389915 0.00087219186 0.00030894374 0.00043643644 0.00044136107 -0.0016404802 -0.00041470974 0.00035636834 -8.914649e-05 -7.344562e-05 -0.000639255 0.000582308 -0.00090271275 -0.00073954964
turnbased 0.0013695322 -0.00016584352 5.0914503e-05 -0.00022915198 0.00092079066 -9.5555166e-05 0.00072618533 -0.0002539024 0.00044621588 -1.8480016e-05 -0.0007843246 0.00033142915 -2.6630298e-05 0.0006871824 0.00013744216 0.0013975642 -0.00015071296 -0.0007028959 0.00022251511 -2.7048536e-06 -0.00078935537 0.0018398216 0.0019233124 0.0015916866 -0.00037547795 -0.0003942227 -0.00014587972 0.0018809258 -0.002447754 -0.0010902899 0.00081672857 0.00090991484 0.0014474193 0.00038047173 0.0012014669 -0.00078083016 0.0013553859 0.002153764 -0.001025409 -0.0001867592 -0.0021210192 -0.00025118617 0.00017475085 5.241813e-05 0.0025570039 0.00031447393 -0.00043680967 -0.0012757202 0.00015304679 -0.0009408151 -0.00016486892 8.027563e-05 0.00012313822 0.001088954 -5.6018002e-06 -0.0009703754 -0.0014989666 0.0017035156 -0.00059269293 0.0004732641 0.0011061534 -0.0011411633 -0.00073208986 -0.00022664494 0.00067015446 0.00089417136 5.7330595e-05 0.00087987934 -3.594887e-05 0.0038852862 0.00044662654 -0.0003935422 0.00043998208 0.00018194104 -0.00053778687 -0.0023272918 -0.0006332633 -0.0010601424 0.00020684581 -4.691285e-05 -0.0015876839 -0.0005859573 0.00073886325 -0.0012897517 -0.0014764277 -0.0023372897 -0.0003728613 -0.0014110578 -0.0010028892 0.00032780983 0.0005203945 -0.00031412832 -0.00081453513 0.0016733003 -0.00092260994 0.0009508857 0.0015545784 0.0014871516 0.00097172736 -0.00033629313
metroidvania -5.95748e-05 -0.00013947021 -0.0013898371 0.0016135769 -0.0007959913 -0.00019211535 0.00066389964 1.9570145e-06 -0.0007211584 -0.00071931334 -0.00020606452 -0.0005355362 0.0018160652 -0.001292943 -0.00037657667 -0.00045020593 0.001899154 0.00044221999 0.00044201885 0.0002464003 -0.0013064934 -0.00076872186 0.00043222777 0.0010214463 0.0017881941 -0.00024991046 -7.4178056e-06 0.0005901559 -0.00044306653 0.0009934717 0.0024426465 -0.00012404894 0.000104441766 -0.00011600703 0.0003119125 4.620784e-05 0.00029097867 -8.035585e-05 0.00024666637 0.0009161303 -0.0005512689 -0.00034079913 -0.0006210068 0.0004450457 0.0003814887 -0.0007337672 0.0003483871 2.1614438e-05 0.0011679932 -0.0012923751 -0.0010214412 0.00086502434 -0.0017274859 -0.0016278578 0.0006101791 0.00083483086 0.000922061 0.0005258782 -0.0013414264 -0.0011946205 -0.00056173466 0.0005638949 -0.0018712608 3.9307968e-05 0.00020647427 -0.00077408 -0.0009562762 0.00043282696 -0.0014384775 7.212188e-05 -0.00034820725 -0.0004772203 0.00048060322 0.00017966497 0.0007864689 0.001369617 4.4413464e-05 0.0019088745 -0.00022958338 0.00095469307 2.3729557e-05 0.0007299093 0.00031499562 0.0010601253 0.00041042425 0.00051422697 0.0017309614 -0.0012034248 -0.00048339012 -9.468648e-06 -0.0008260535 -0.00034389118 0.0005632057 0.0003323392 -0.00031632697 0.0020464223 0.00088042027 0.0003267624 6.6061366e-05 0.0006839986
action -0.00015169494 0.0025239852 -0.0002816421 0.0010488546 -0.0020421199 0.0023710283 0.0018836443 -9.6919655e-05 -0.001898643 -0.0014489789 -0.00080548285 -0.0018765164 -0.00082347257 0.0027022548 -0.00031360463 -0.0005915865 -0.0008586311 0.00021711928 0.0010527227 -0.0005017115 -0.0024596998 0.001414233 -0.0008244246 -0.00079121254 0.00043710772 -0.00068886275 0.0017913592 -0.0006213642 0.0016112803 0.00021398888 0.00013480829 0.0008687473 -0.00026583043 0.0014944552 0.0016745046 0.0010309378 0.0033640477 -0.0007965619 -0.00021568671 0.0013607942 -0.0024489504 -0.0024633983 -0.00081548956 -0.0012538291 0.00027522488 -0.002407989 0.00014862446 0.000109406494 -0.0020949391 0.0001251147 0.002130103 0.0010872651 -0.0010963414 2.5640782e-06 0.0029400662 -0.0027146232 0.0002714262 -0.0025110971 0.00014521873 -0.0008709524 -0.0013486032 -0.00068975653 -5.0055646e-06 0.00068069797 0.00046511783 0.00022904911 0.0006659934 -3.0092533e-05 -0.0023375624 -4.597361e-05 -0.001557825 -0.000112973714 -0.00053593214 -0.0014711273 -0.00016079827 -0.0010650125 -0.0026914044 -0.0011794054 0.0016477443 0.0002893381 -0.00037072203 -0.00089447375 -0.0003561783 -0.000287728 -0.00059302105 0.0008572042 0.00028001226 0.00014933327 0.00012067839 -0.001650495 3.9607043e-05 -7.455346e-05 0.0020300162 -0.0003972161 0.00082770246 0.0008078738 0.0012840452 0.0006065879 0.0012077694 0.0016382749
spaceflight 0.00017207341 6.5695625e-05 0.00037618013 0.0010485842 0.0007713771 -9.4495e-05 0.0015865427 0.0007504087 0.0008434677 -0.0010769601 -0.0013538358 -0.0005073006 1.8696683e-05 -0.0010821018 0.0008145559 0.00011791593 0.00097568025 -0.000879163 -0.0014535771 -0.0008540147 9.409981e-05 -0.00031241332 -0.0012144123 0.00029675677 -0.00017198565 -0.00060165446 -0.001022584 0.0016218021 -0.00020964109 0.0012400509 -0.0013509587 -0.0014751317 7.7937846e-05 0.00095434 -9.734221e-05 -0.0010124586 -0.0005835948 0.0004935376 0.0011236226 -0.00035744553 -0.00044613742 -0.0017982229 2.8264601e-05 -0.00081766304 0.00049310393 -2.9994724e-05 0.0002062166 -0.0010672102 -0.0007897475 -0.0021555165 2.4158651e-05 0.0009828901 0.0003362733 -0.00042911805 -0.0015068712 -0.0022865413 0.00058135577 -0.00019425106 -0.00017431435 -0.0003144978 0.00018662598 -0.00011837389 0.000112922025 -1.0415183e-05 -0.00044156745 -0.0006904582 -0.00084625994 -0.00016788203 0.00088113203 -0.0005579039 -0.00089527946 -0.00028348304 -2.5019384e-05 -0.0010115714 0.0007426275 -2.088738e-05 0.00088934373 -0.0004513633 -0.0022014605 0.0017396504 0.0006629926 -0.0012843821 0.00018235239 2.4957379e-05 -0.0008849786 0.00060412596 -0.00057748536 -0.001263326 -0.0005403186 -0.0011800884 -0.00058387907 -7.058406e-05 -0.0003981265 -0.001424817 -0.00061107863 0.00015705288 -0.0005237641 0.0004068312 0.0012049209 0.0010841456
towerdefense -0.0008662771 -0.00097039784 -0.00077285845 -0.0008732472 -0.00035826134 0.0006281079 0.0002926699 0.00089795014 0.0005084459 0.00019902962 0.0009665795 -0.00048404056 0.0005673042 0.0013081544 -0.0010015968 0.0005141782 0.0005387923 -0.00037676416 0.0007611416 0.0005104184 0.0005825193 0.00085566565 0.0006133271 0.0016248297 0.0006486637 6.345467e-05 -0.0016770551 0.0012962116 -0.00057453313 5.5076296e-05 -0.00036152123 -0.0013759118 0.0017946945 0.00021845679 -0.0003032053 0.0008392425 -0.00034172335 -0.0005157616 -0.00018329691 0.00049753266 0.00078563194 0.0005977781 -0.00023023557 0.00048572093 -0.00017199985 -0.0025033175 0.0006149598 0.0009595686 0.0003268402 -0.0016324122 0.0008848216 0.0015031808 -0.002106303 -5.0033334e-05 -0.0011746872 -0.00039868898 0.0014299181 0.0006941938 0.0005988796 0.002049928 -0.0008032678 0.0009243637 0.00016597939 0.00056610006 0.0022715463 0.00056077493 -0.00071377074 0.0004557131 0.0021343518 9.25912e-05 -0.0013019702 0.0008484482 0.0009025397 -7.9605954e-05 0.00093060004 0.00010959926 -0.00041676665 0.00039051706 0.00037166147 0.0002043563 0.0007736548 0.00039115176 -1.8382867e-05 0.00041267762 -0.00077430357 0.00052783155 0.00094226334 5.8333324e-05 0.00011315177 5.8971975e-05 0.0006118939 -5.108667e-05 -0.00050977455 0.00046276432 -0.00042490973 -0.00021941739 0.00045353966 0.0003111136 0.0006689698 -0.00060717255
individualsports -0.00035505605 0.00049720984 -0.00039348926 0.00094776734 0.0009572387 -0.00052946975 -0.00061920675 0.0014431523 -4.2860647e-06 0.00031039008 0.00042572385 0.00050897826 -0.0007829563 -0.0005358107 0.00036764663 0.00085379655 0.00016440923 -8.975901e-05 7.0295486e-05 0.00051642064 0.00016869548 0.00061459147 0.00034189725 -0.000937253 0.00014319732 0.00039718623 -0.00043702408 -0.0011030424 -0.0005750542 0.00039798836 -0.00030464638 0.00019825474 0.0014465128 -0.0016239517 -0.00031949443 0.00061396667 -0.00057371904 -0.00036880551 -0.00017189248 -0.00051156426 0.00019463815 -0.00041617343 -0.000107251864 0.00010714681 0.00039729368 -8.3326064e-05 -2.6868143e-05 0.0012935572 0.00026767925 0.0007041127 -0.00056498445 5.615752e-05 -0.000486356 -0.0010871257 1.6328531e-05 0.0013205046 -3.4854256e-05 -0.0012311778 -0.00022822044 0.00076121103 -0.00059096736 0.00047920528 0.0016603791 6.881034e-05 4.6295365e-05 0.001634912 -0.00027473434 0.0011970957 0.00043596444 0.00011842147 2.6568834e-05 -0.0014498704 0.0009346276 7.834911e-05 0.00035825346 0.00083832146 -0.000107931875 0.00023908117 -3.2972483e-05 -0.00038647305 0.00044535942 -0.0008240872 -0.0008453524 0.0012302877 -1.601342e-05 -0.0004721779 0.00021975847 0.0005413643 -0.0001204089 0.0012947406 -0.0002823525 0.0006418102 -0.00046658184 0.00061135483 -0.0009874385 -0.00010249882 0.0001417862 -0.00030809478 7.949195e-05 0.00014174939
racing -0.00070313347 0.0010158408 -0.0021160163 0.00087586575 -0.00054598926 -4.977158e-05 0.001447631 -0.0010926002 -0.001294697 -0.0023305577 -0.0009030988 0.001968316 -0.0029153659 -0.0009408303 0.0012623564 0.0007824857 -0.0015680472 -0.0012862595 0.00085797865 -0.0011170483 0.00059774535 -0.0012390449 0.000668745 0.0004397721 -0.0009090019 0.002281666 -0.00012864958 -0.0006792157 0.0002205241 0.0019519894 -0.001100833 -0.00029806726 -0.00065868895 -0.0020798864 0.0012472612 0.0023181136 0.00041762454 0.0001391315 -0.00061196496 -0.0005568612 -0.0019222429 0.001173866 0.0007738575 -0.00082723296 0.0026294715 0.0005140256 0.0011742442 0.0012379471 0.0018052302 0.0016052745 -0.0010384208 0.0024357324 0.0001688531 0.00078847 0.0013534258 0.0004477178 -0.00071558985 -0.0014910024 0.0011952035 -0.00037455896 -0.0014448792 -0.00071653863 -0.0022747521 0.0014076509 0.00088856724 -0.0011916579 -0.0016805398 -0.0012259417 -0.00030001756 -0.00038396948 0.00096818875 -0.0019342209 0.0005358788 6.4379085e-05 -0.0018598776 -0.0017331612 0.0013988022 0.00052890665 0.0014259235 0.00023520358 0.0026866726 0.0019328112 -0.0010883352 -0.00017571764 0.00045824944 0.00044215648 0.0002940522 -3.609483e-05 -0.00067638216 0.002910976 -8.944128e-07 -9.2607996e-05 0.0011962252 -0.0009896659 -0.0011931967 0.0025689104 0.00043938932 0.0019555248 -0.00082290807 1.680683e-05
farmingcrafting -0.0010963859 0.0007840257 -4.9445185e-05 -5.1868465e-05 -0.00040967696 -0.00065267197 0.00017322612 -0.00076132896 -3.8845697e-05 0.0002410575 -0.00037198514 -0.00035529092 -0.00026198864 0.00072545325 0.00076098874 0.0007567725 -5.9057915e-05 -0.00035448594 0.0011403247 -1.2057038e-05 -0.0007432497 -0.00038756154 0.00072763563 8.5122585e-05 -0.0009914478 -0.0010981652 -9.324929e-05 0.000314691 0.0012475919 -0.00013676926 0.00039201626 0.00091604795 -4.407816e-05 -0.00010107221 -0.0004519541 0.0016450452 0.0013081504 -7.901974e-05 -0.0007972488 -0.0006662747 -6.67597e-05 0.00030246668 -0.00020785144 -0.0013293085 -0.00010462881 0.00024197568 -0.0003747111 0.0012677993 0.0015119382 0.00028527074 0.00030177273 0.00023248821 -0.0004971488 0.00024357844 -0.0017447522 -0.00029672726 -0.00075317116 0.0020662078 5.6151097e-05 6.0030692e-05 -0.0006533045 0.00022580955 0.00026627985 0.00013189504 -0.0003075586 0.00017867878 0.001229583 -0.00016519801 0.00025965058 0.00051401777 0.0014868433 -0.00056953635 0.0012232024 9.266356e-05 0.0003801294 -0.00025574953 -0.001248293 0.00015793268 -0.000911964 -0.0006413374 -0.00094627676 -0.00037463225 -0.00016312643 0.0020753294 0.0006277776 0.0006624689 0.0006919153 0.0007915517 -0.0010269004 0.0012422993 -4.4654716e-05 0.00017909466 0.0007765252 -0.0011923228 6.7469155e-05 -0.00010192574 0.00017730826 -0.0013278858 -0.00029815617 0.0006866888
roleplaying -0.0009810126 -0.00024225954 -0.00024947376 -0.0010768854 -0.00024707994 0.0005521414 -0.0012186351 -0.0006367734 -0.0013479849 -0.000617777 -0.00042440728 0.00067916926 0.0004531968 0.0006516614 0.0016821959 0.000581895 0.0008164634 0.00057851325 0.00034116083 0.00033571728 0.0002162714 -0.0004337643 -0.0007828196 -0.0002579035 0.00019797619 -0.0009173492 0.0010886946 0.00045379644 -0.00050339114 -0.0012525634 -0.00027499272 -0.00084900245 0.0007877011 0.00058645423 0.0011829071 0.00083054823 0.00086318265 -0.00023467901 0.00034393647 0.0014840419 -0.00025351494 -0.00057373405 -0.00032189477 -0.0006241964 -0.00086192804 0.00043712242 -0.00041014998 -0.0006954485 0.0007861397 0.001059545 -0.0010628211 0.0008856699 0.001031638 -0.00079322787 0.000115764014 -0.0004637667 -0.0020687503 7.615527e-05 -0.0017278523 -0.0009826749 0.00017187923 0.00038247422 -0.0006483172 -0.00025699427 -0.00038762565 -0.0006532077 -0.0010567545 -0.0027698383 0.00048646712 0.0005558508 0.0002608914 0.00018596831 0.0019960983 -0.0004292313 0.0002775842 0.00065765163 -0.0023559157 -0.00018435254 0.00028511838 0.00044078045 0.00069643464 0.0009384343 -0.00058307534 0.000521355 0.001995687 -0.00024505326 -0.00058838417 -0.00052817765 0.00033340897 0.00021805253 -0.0022102098 0.00043950262 -0.00017917 0.0008211862 -0.0005946677 -0.0013051248 -0.001180919 0.0016342753 -4.6298002e-05 -0.0002042879
adventure 0.0015118605 0.00077303255 0.00013955425 -0.001274833 0.00095751917 -0.001191273 0.00062605547 0.00032896054 -8.2554565e-05 -0.0008010659 0.0009896941 -0.0021465272 -0.0011842968 0.0013949729 0.0001039954 -0.00030740074 -0.001043298 0.00041260137 -0.0017955973 0.002189357 -0.0007599513 -0.000914625 0.0008170967 -0.0014880659 -5.4291067e-05 0.00025169185 0.00047837826 -0.0009107741 -0.0007159783 -0.00062963786 -0.00071227347 -0.0016411229 0.0005643463 -0.0011465967 -2.254738e-05 0.0012336029 0.00024200801 0.0020140053 0.00083567866 0.0015456936 -6.186734e-05 -0.0012863314 -0.0016564591 -0.00023706883 0.0003155786 -0.00024454968 -0.0013559384 -0.00018907682 0.0004708282 -0.0011336256 0.0003466764 -0.00038421017 -0.0011454688 0.0009704643 0.00055636687 -0.00027309303 -0.00070756784 -0.00033325428 -0.00039351164 -0.0004246512 0.00094422355 -0.00084878627 -0.001574405 -0.001329752 1.0468231e-05 0.002009891 -0.0010483651 0.00050918263 0.00015955743 7.658581e-05 -0.00010601943 -0.0017343813 -0.00096983404 -0.00053704047 0.0019354296 0.0017207451 0.00093478156 0.00044384247 -0.00040542852 0.000646814 -0.0005988522 -0.0013396988 5.3753385e-05 -0.0007771601 0.0021715346 -0.0012739068 -0.00094697496 -0.001850139 0.0010803156 0.0016714968 -0.0006896098 0.00095345423 0.0020637396 0.0011150105 0.001226056 -0.0010415388 -0.00038844557 0.0011656747 0.00028627168 -0.0017703443
turnbasedstrategy 0.0009412082 -0.00042437672 0.0010720316 -3.6177404e-05 0.00056192005 0.00064490613 0.0005845393 0.00024835143 0.00026298114 -1.9099667e-05 -0.0010545572 0.00026013068 -0.00033199752 -0.00091924437 0.00015813627 0.00073642406 -0.0004158459 -0.00068042794 -6.3446278e-06 -0.0006407367 -1.7426062e-06 0.00091648026 0.0016652122 0.00018974852 -5.339026e-05 -0.00063158135 0.00041150497 0.0005669922 -0.00074480416 -0.0005762749 3.9990133e-05 0.00023974372 0.0019857099 0.00073770876 4.077355e-05 0.00029736315 0.0011948672 0.0010548858 0.0005490008 -0.000738819 -0.00087450276 3.3335953e-05 -0.00034626026 0.0010202185 0.0006197862 0.00087239506 0.00095073215 -0.00014966918 -0.00012515522 -0.0012714892 -0.0008208066 0.00060308736 -0.0005408755 0.00067703385 -0.0002954856 -0.0015530409 -0.0008113395 0.0015818969 0.00030418375 0.00014302146 0.0006818673 0.00011909554 1.7290919e-05 -0.00014554473 -0.0005753343 0.0011749289 -0.0003430872 0.00035183935 -0.0011383573 0.0014903373 0.00023606008 -0.00032434735 -4.4336644e-05 -0.0008115373 5.0198258e-05 -0.00084262167 -0.0009875966 0.0008970364 0.00023654227 0.001076874 -0.0012117137 -0.00088225666 -0.0005225538 -0.0005616296 -0.0007198773 -0.00015843262 -0.00047988267 -0.0011282081 -0.0011763268 0.00016337348 2.2739498e-06 5.1989868e-05 -0.00034179448 0.0012119082 -0.00036556117 -0.0004251337 0.0013450301 0.00059455377 -0.00066172786 1.5053795e-06
partybased 0.0024439865 -0.0012067165 0.00079102855 0.00032297705 -0.00061716244 0.00069653755 0.0016366628 -0.00043697015 0.00024407113 0.0011916079 -0.00067757384 0.00092947163 0.00044143686 0.000275933 -0.00034535292 0.0010044432 -0.001800164 -0.00014607573 0.00092818897 -0.0002815148 -0.0007036605 0.00030059964 0.0006485905 0.00036095493 0.00048367583 -0.0011220314 0.0003246865 0.00013079762 0.00040347982 -0.00086477696 0.0014751101 0.00017907834 8.726194e-05 -0.0013202601 0.00067167485 -0.0012614639 4.9992825e-05 0.0008398216 0.000114557224 0.0005651106 0.00069645996 -0.0004697435 0.0003618549 0.00014581012 0.0012144526 0.0007523999 -0.0004936922 -0.00038592584 -2.1860422e-05 -0.0005606122 -0.0008428186 0.000747314 -0.0012799543 0.001880619 4.4361783e-05 0.0007796349 8.7085275e-05 0.00086786813 -0.00097385346 -0.00027382173 -0.0006193981 -0.0012925448 -0.00081078644 0.0009451971 0.0004698301 -0.00013810837 -0.0013302215 -0.00063234166 -0.0007319247 0.0014830771 -0.0003468088 -0.0012781018 0.00034087477 0.00031521873 -4.3003314e-05 -0.00043232122 -0.0008076054 0.0005128826 5.37501e-05 4.7139303e-05 -0.0003992537 0.0008938006 -0.00087393937 -0.0019409389 0.00056944136 -0.0011887646 2.8102486e-05 -0.00076664356 -0.0019543762 -5.1702305e-06 0.0005698638 0.0010837131 -0.0013016398 0.0014233413 0.0014543597 -0.0012461065 0.0016343903 -0.00082736305 0.00090377365 0.00060179195
fishinghunting -0.0007625377 0.0018130657 0.0010574551 -0.0010463794 3.994751e-05 -5.608603e-06 -0.0011253823 -0.002212202 -3.7170612e-05 0.00019484456 0.00029418472 -5.617398e-05 -0.0008229153 -8.1960825e-05 -0.00037966965 -0.0014444642 0.0010153775 -0.000530734 -0.0008563311 0.00023674384 -0.0020814943 -0.00040292184 0.00085298077 0.00015406219 -0.0004980166 -0.0005504928 -0.0006567383 -0.0013074875 0.00022010796 0.0006412437 -0.0005674171 0.0014475263 5.8263122e-05 0.0004344894 0.000432166 0.0005077531 -0.00016503272 0.00034754814 -0.001434302 -0.0010239031 0.0005198743 1.996815e-06 -0.00027148222 -0.00010746914 -0.0006055832 0.0003436524 0.00020848722 0.00017392117 0.0010200727 0.0028751357 -0.001123934 0.00029984358 0.0012613181 9.578305e-05 0.0011605449 -0.00061931356 -0.000930281 6.835935e-05 -0.00061465404 -0.0003457994 -0.0009251384 0.00022616457 -0.00020458673 0.0018750738 -0.00054848776 0.00042032136 0.00041875348 -0.0005420881 9.685539e-05 4.2828728e-05 -0.00065800914 -1.6638443e-06 0.00059093646 0.000836992 0.00012489237 -0.00094600825 -0.00093061366 0.0005376355 0.00021211116 -0.0002800403 -9.3014416e-05 0.0021531093 -0.00022025578 0.00037171558 0.0010589735 2.8483935e-05 0.00025960442 -0.00050204806 0.0003241675 -3.4186698e-05 -0.0006877659 0.0008807571 0.00034185481 -0.00067256455 0.000485939 -0.00016325102 -0.0002907131 0.001013719 -0.0010918159 -0.0006963178
casual -0.0007810745 0.001305159 -0.00020518748 -0.0026159864 0.00010034258 -0.0017516507 -0.0018244036 0.0017450908 -0.00037003832 -0.0008483889 -0.0010957867 0.00033776453 -0.0001937104 0.0005099447 0.0033122622 0.0007579854 -8.343635e-05 -0.004495547 -0.00034031578 0.0012905993 -0.0011093954 0.002556848 0.00065000815 -8.74554e-05 0.0008580569 0.001155593 -0.00029497393 0.00062437635 -0.0015574923 9.165195e-06 -0.00016745724 0.0019340842 0.0004322329 -0.0026657965 0.0010639554 0.002080141 0.0016119347 -0.0011038468 -0.0015019691 0.00063754275 -0.00081420864 -0.0024194496 -0.0005581217 -0.000988283 -0.0025230616 -0.0007594182 0.00092764455 0.0001982454 0.00060522754 -0.0011641752 0.0013887816 0.00074844796 -0.00012134454 -0.0027898122 0.000402349 0.00024972754 -0.0002953805 0.00038903864 -0.00017562558 -0.0008632085 0.00015160025 -0.0015201445 0.0010323573 -0.00045595955 0.0015335262 -0.0002386067 -0.0007894916 -0.00019550306 0.003016403 0.0014324216 -0.0011097424 0.0013566697 0.001726597 -0.0015668154 0.0017950123 -0.00034541584 -0.00028266787 -0.0012715609 -2.1510807e-05 -0.00030799164 -0.0017419818 0.0014425217 0.0016115383 0.00042376266 0.0005027109 0.0009096759 -0.00042253072 -0.0011670804 -0.00026099736 -0.0007750779 0.00047548904 0.00029984 0.00096730085 0.0008114836 -0.00023539794 -0.0002551013 -0.0021780732 0.00015600066 -0.00025815386 -0.0023921325
buildingautomation 0.0001253385 0.0019025243 -5.394263e-05 0.00039986736 -0.0012473955 0.00034678692 -0.0006506661 0.0007940064 -0.00069226243 -0.0005601195 0.00012595789 -0.00052561174 0.0011195351 0.0004305981 -1.1420583e-05 0.000230036 0.00025880238 -0.00012927571 0.00010926439 -1.1014696e-06 -0.0013875897 1.9060753e-05 -0.00033366197 0.00041126693 0.00033325868 -0.00017630095 -0.00053397845 -0.00023026842 0.00021438583 0.00048642655 -0.0005032952 0.00093216257 0.00032068402 3.2879776e-05 -0.0005405272 -0.0003427 0.00047125638 0.0001322342 0.00048861885 -0.00061810575 0.00035967972 -0.00052586757 -0.0013072646 -0.00060026615 8.5200154e-05 -0.0004014098 -0.00068370474 -0.0010985524 0.00071141904 0.00073865836 0.00023536243 -1.0782318e-05 0.00016638586 0.0007766718 -7.563451e-06 -0.00074882444 -0.0018178979 -0.00014373417 0.000473801 -0.00089639466 -9.49744e-05 0.0004394615 0.0007769429 0.00021391906 4.8225218e-05 0.000520839 0.00026491322 -0.00052020245 -0.0008161363 -0.00039634097 -1.4095081e-06 0.00039425868 0.0008273858 -1.8877317e-05 8.624798e-05 -0.000808412 -0.0009784381 0.0003393309 -0.00042126756 -0.0010523767 0.0001869488 0.00086969184 -0.00064872525 -0.0011317919 -0.0007261357 -0.0002791506 -0.0004178403 -0.00014010105 -8.094476e-05 0.0007386053 -0.00019624483 0.00038468643 0.00013192532 -0.0007429812 0.00023517568 -0.0009455383 0.00095911033 -0.0008426511 0.00045781163 -0.00068814494
citysettlement 0.00012744586 -0.00044081119 0.0002621219 -0.00026146974 0.0006205903 -0.00079999596 0.0014781539 0.0015479544 0.00035477674 -0.0017593923 0.00084769 0.00058997236 0.0005610627 -7.747637e-05 -0.00020211792 7.1536466e-05 0.00076920853 0.002229056 -0.0009140889 2.4589006e-05 -0.0010416887 0.0012036223 0.00033154865 9.8900695e-05 6.99868e-05 -0.0018969289 -0.00023470365 0.00043741515 0.0012371584 0.00036584726 -0.0003337086 0.00058735476 -0.00075606577 -0.00075861294 0.0011816077 -0.00048203283 0.000888221 -0.0011441091 0.00044478272 -0.0006389891 8.956683e-05 -0.0005226081 0.00030985274 0.001535149 0.0005482788 0.00085715204 -0.0021181076 0.00034412285 0.0006633982 0.001724364 -0.0012849444 0.00030369536 -0.00038876056 0.0010481036 -0.00033133716 -0.000789995 -0.0005583742 0.0009926069 0.00028252974 0.00032333346 -0.001179791 -0.0005787603 -0.00029015253 0.0009238549 0.0006353064 0.000938288 -0.00025182142 0.0003006258 0.00019764733 0.0010127189 -0.0006295468 0.0007101245 0.00026237356 0.00017971816 -0.00045860306 -0.000861751 0.0004402968 -0.0007955778 0.0020346749 0.001892319 -4.707001e-05 -0.0005636419 0.0002460307 -7.654425e-05 -0.00029552053 -0.0007073813 0.00016919944 0.0007357704 0.0008044314 -0.00038288272 -0.00018853134 -0.0012564986 0.0016659213 0.00039858985 0.0003019604 0.000112482856 0.0007890061 -0.0008050941 -0.0019972764 -0.00010376437
dating 0.0016413663 0.00027582757 -0.00021552663 -0.00090693077 0.00027471816 -0.0012318564 -0.0012248819 -0.0006637023 0.00010192668 0.00016960785 0.00036826637 -0.00063053635 0.00068963936 0.0009236079 0.0017860838 0.00019457472 -0.0012702273 -0.0013693336 -0.00058444403 -0.0011313979 -0.0010406034 -0.002053151 0.0009111109 -0.001942694 -0.0016043443 -0.0012808676 0.0010406226 0.0019326434 0.00017009793 6.2149484e-05 -0.0005416175 0.0026331786 -0.0011874372 0.0007640513 -0.00029146974 -0.00017512725 0.002099171 0.0011514811 -0.0008831326 -0.00085347745 0.0017844235 0.0008121189 0.00059342926 -0.0013359124 -0.0004622338 0.00025298283 -0.001811674 0.0018588228 0.000112989896 0.0023228123 0.00080903945 0.00010452977 0.002906546 -0.00028608038 -0.0017047055 -0.00047839226 -0.0006278624 -0.0003464923 -0.00094864314 0.0020481467 -0.003162916 -0.0003969078 -0.00055833004 0.00031082524 -0.0012981195 -0.0027099429 -0.00091292337 -0.0029169526 -0.00011464522 -0.0005679572 0.0021675976 -6.1614024e-05 0.00014473603 0.00024542815 0.00086160493 0.0006362334 0.00068305054 0.00013244324 -0.00097336905 -0.0012410255 0.0016896309 0.0014452591 -0.0006074311 -0.001133411 0.00044124897 -0.000928769 0.0018633323 6.877866e-05 0.00033384713 0.0008184515 -0.00020630825 0.0027745483 -0.00053926307 0.00032533647 -0.0008161377 0.0020401408 -0.0006107027 0.00027019373 -0.0014527215 0.0018900102
hobbyjob -0.0011463717 -0.0023768162 0.0006292294 -0.0006980301 -0.0008055334 0.0009374696 0.00039397477 0.0018346822 0.0015584516 -0.0009486205 0.00043827915 -0.0014168886 -0.0005345501 -0.0006258513 -9.49449e-05 0.0011564926 -0.00072508043 0.0005512361 -0.0014967432 0.0003554908 -0.00027416483 -4.9603725e-05 0.00024928205 -0.0011694403 0.0011782727 0.002334191 0.00038649753 -0.00017719281 0.0013010183 -0.0009144685 0.00093118224 0.0003722741 -0.0009207377 -0.0015410209 -0.0013395202 0.0003763668 0.0014717535 -0.0020293354 -0.00043041233 0.00024138716 0.000118185904 0.0005086227 -0.0012823974 -0.0012883367 0.00032506234 -0.0001271581 -0.0004074219 -2.9783567e-05 0.0010878613 0.0020226976 -0.00037413297 -0.0001500955 -0.000646489 0.0006830702 3.290566e-05 0.00081851636 -0.00086593285 -0.00036938998 0.00042020075 0.00074893865 0.00073098764 0.0005602759 -0.001213407 -0.0011442277 -0.0012662666 0.00096452277 -0.0010852152 -0.0008455425 0.00089394744 0.0018820846 0.0022941902 0.0004891583 -5.124899e-05 -0.0014068887 -0.00101144 0.0013850274 -0.001645464 0.00082046253 -0.0017740902 -0.0014803231 0.0021025708 -0.0016271496 0.0006196347 0.0024027345 0.00033232005 -0.0011217265 -0.00073941494 -0.0017171054 -0.0011984535 -0.00083899073 0.00023426606 0.0014795356 -0.001463615 -0.00023966243 -0.00010548261 -0.0009734849 0.000119331584 -6.469214e-05 0.00035021268 0.0007728432
lifeimmersive 0.00015449274 -0.0022261364 0.0007468238 -0.00039092245 0.00120053 0.000197407 0.0003247924 -0.00031256615 0.000532766 0.00066057534 0.00028704558 0.0018764721 -0.00037080978 -0.00032429278 3.150093e-05 0.0017839224 -0.0009142897 -0.0012079463 -0.00026109244 -0.00081599073 -0.0013382254 -2.5473604e-05 -0.00025423773 0.0007676053 0.00031792326 -8.610866e-05 -0.00087671814 -8.827328e-05 0.001307124 -0.00041792385 0.0011847254 0.0001636446 -0.00024495742 0.00065118936 -0.00018348667 0.0015061455 0.0019426653 -0.000249073 -0.0008751356 -6.0698938e-05 -0.0008395403 -0.0017641017 4.436892e-05 0.0008445076 0.0004244595 -0.00069696835 0.0016369473 0.00023276024 -0.00046695417 0.00017456332 0.00075691653 -0.00031946637 -0.0007668124 -0.00027620493 -0.00050042354 -6.295016e-05 0.00051742996 -0.00021554415 -0.0008609015 0.00014533546 -0.00072434475 -0.00023194858 0.00084342924 0.00026364447 -0.0007923326 0.00050209084 -0.0008768744 0.00062218483 0.0005812939 -0.0004343053 0.0006684474 -0.0006019572 0.0014592062 -0.00036800117 0.00020376609 0.0008897534 -0.00035586243 -0.000986332 0.00029064904 -0.00065098924 -0.00041804058 -0.000676505 -0.0015811762 0.0019406312 1.078427e-06 0.00010050817 0.0019416102 0.000903475 -0.0012233291 -0.00026866692 -0.0004817893 -9.834477e-05 -0.0020712144 -0.0002819339 -0.00095536915 0.00097652304 -0.000351331 -0.0009742382 -0.0009354623 -0.00051186886
visualnovel -0.0011253648 -0.0012382651 5.5557342e-05 0.00028250532 0.0016906777 -0.00045340144 0.0009707119 0.00011671478 0.0014199045 -0.00010458523 -0.0014956811 -0.0012650919 3.333113e-05 -0.0006811881 0.001856908 0.00020635758 -0.0014235267 -0.0012033968 -5.0861554e-06 3.3553857e-05 0.00080688356 0.0013481093 -0.0020473609 -0.00063780736 -0.00037086153 0.00022412554 -0.00074923725 0.0011779115 -0.0010546385 0.0007374745 0.00049353053 2.1373518e-05 0.0016860374 -0.0011544166 0.00093230366 -0.0010748018 -6.4446445e-05 0.0010925445 -0.00034253052 -0.000493944 0.00084393367 0.00012558748 -0.00067844335 0.00082048145 0.00023883897 0.0011650492 0.0001319558 -0.0012383952 0.00073341007 0.0007907327 0.00067518215 -0.00040235772 -0.00063712563 -0.0001897161 -0.0005404131 0.0006167134 0.00026172004 0.00074403285 -0.000101436206 0.0016705575 -0.0008427492 0.0003343416 -0.00061306404 -0.0014260008 0.00089181215 -0.00014402898 -0.00032639838 -0.0005241857 0.00029642618 -0.00035892197 -0.00024457386 4.021885e-05 -0.0003119774 -0.0008820748 0.0007346705 -0.0008080573 0.00085367885 -0.0014279665 0.00016813797 -0.000566038 -0.0010881403 -0.00061526726 0.00079018966 -0.0009804626 -0.00067900046 0.00056675274 0.00052945456 -0.0011889059 -9.986882e-05 -0.0005974365 0.0015531128 -6.970835e-05 -0.00012992694 -4.8875052e-05 -0.0012832836 0.0004355629 0.0019223671 0.0014621902 0.00026028574 -0.0010365498
